{"sizes":[18,9,1],"layers":[{"0":{},"1":{},"2":{},"3":{},"4":{},"5":{},"6":{},"7":{},"8":{},"9":{},"10":{},"11":{},"12":{},"13":{},"14":{},"15":{},"16":{},"17":{}},{"0":{"bias":-7.8966169357299805,"weights":{"0":-2.381359338760376,"1":-3.797837257385254,"2":-2.0400607585906982,"3":0.24610404670238495,"4":-0.7341923117637634,"5":-0.28530174493789673,"6":0.8227603435516357,"7":1.2502977848052979,"8":0.9622389078140259,"9":2.672224283218384,"10":2.9887168407440186,"11":2.573725700378418,"12":-3.1698203086853027,"13":-0.4641140401363373,"14":-3.8355464935302734,"15":-1.2429770231246948,"16":-0.2970331311225891,"17":-1.0738674402236938}},"1":{"bias":-5.5930328369140625,"weights":{"0":-1.0450918674468994,"1":-1.8018320798873901,"2":-1.5452263355255127,"3":0.5359573364257812,"4":13.792004585266113,"5":-0.40016037225723267,"6":1.6137151718139648,"7":1.4419585466384888,"8":1.3501598834991455,"9":1.3669862747192383,"10":1.2938971519470215,"11":2.285019874572754,"12":-0.5016791224479675,"13":0.1496390402317047,"14":0.2669692635536194,"15":-3.073425531387329,"16":-2.354199171066284,"17":-1.911421775817871}},"2":{"bias":9.159090995788574,"weights":{"0":-0.48637574911117554,"1":-6.544234275817871,"2":-1.1975252628326416,"3":3.758155345916748,"4":-0.10160838812589645,"5":3.4122273921966553,"6":2.6033718585968018,"7":-4.776597023010254,"8":2.2540123462677,"9":0.1691005825996399,"10":3.8070640563964844,"11":0.42866554856300354,"12":-0.7109812498092651,"13":-0.5165160894393921,"14":-1.20460844039917,"15":-0.8400807976722717,"16":4.2617387771606445,"17":-0.8974480032920837}},"3":{"bias":8.67982006072998,"weights":{"0":0.9082134962081909,"1":-1.2379391193389893,"2":-0.18206702172756195,"3":0.7077797055244446,"4":1.8244701623916626,"5":1.3767415285110474,"6":-0.03108268976211548,"7":0.6296650767326355,"8":3.096820116043091,"9":1.2496949434280396,"10":2.7339839935302734,"11":2.4274837970733643,"12":5.193971157073975,"13":1.4521816968917847,"14":5.560840606689453,"15":-3.3935232162475586,"16":-2.9404430389404297,"17":-2.497934341430664}},"4":{"bias":-9.642535209655762,"weights":{"0":-1.9626450538635254,"1":0.9524280428886414,"2":1.5418695211410522,"3":-4.0576372146606445,"4":1.0586357116699219,"5":-0.13445286452770233,"6":-4.1066436767578125,"7":0.9156181216239929,"8":0.8588104844093323,"9":2.5959887504577637,"10":-1.2597362995147705,"11":-1.6298452615737915,"12":2.985349416732788,"13":-3.602283000946045,"14":0.09634482860565186,"15":2.3594186305999756,"16":-1.9435725212097168,"17":-1.6824277639389038}},"5":{"bias":-6.133610725402832,"weights":{"0":-0.019573472440242767,"1":-1.0740430355072021,"2":3.1692276000976562,"3":0.35900089144706726,"4":-5.677048206329346,"5":-0.7325714826583862,"6":2.729188919067383,"7":-1.0087693929672241,"8":1.7375367879867554,"9":-0.0604015588760376,"10":-0.26909810304641724,"11":-0.5777332186698914,"12":-1.4678583145141602,"13":11.876734733581543,"14":-2.195288896560669,"15":-0.182460755109787,"16":-1.0403273105621338,"17":-0.7022929787635803}},"6":{"bias":8.007070541381836,"weights":{"0":2.0115692615509033,"1":1.6147950887680054,"2":-1.1091322898864746,"3":1.4010505676269531,"4":-16.92533302307129,"5":-2.7815728187561035,"6":1.9759037494659424,"7":1.4625722169876099,"8":-2.4115750789642334,"9":-2.7028677463531494,"10":-1.0620533227920532,"11":2.1975810527801514,"12":-1.4598488807678223,"13":0.10331255197525024,"14":2.211144208908081,"15":-2.1125943660736084,"16":-1.3660242557525635,"17":2.054180860519409}},"7":{"bias":-6.7241973876953125,"weights":{"0":-0.47510743141174316,"1":2.7509849071502686,"2":-0.8306822776794434,"3":-6.314098358154297,"4":15.76703929901123,"5":-5.756467342376709,"6":-0.9213377237319946,"7":1.8817068338394165,"8":-0.09539694339036942,"9":0.29856929183006287,"10":0.2412295639514923,"11":0.9372372031211853,"12":2.615635633468628,"13":0.773547351360321,"14":2.0042831897735596,"15":1.1237622499465942,"16":-0.1694977581501007,"17":0.8150759339332581}},"8":{"bias":-7.424201965332031,"weights":{"0":0.23161739110946655,"1":-1.4472464323043823,"2":0.2587355971336365,"3":-6.158636093139648,"4":4.815893650054932,"5":-6.459916591644287,"6":0.09726205468177795,"7":-1.4822874069213867,"8":0.7578044533729553,"9":-0.07661676406860352,"10":-0.0369797982275486,"11":-0.5334407687187195,"12":1.9111943244934082,"13":-5.081940650939941,"14":1.6944876909255981,"15":-0.11360188573598862,"16":-0.625576913356781,"17":-0.3191961348056793}}},{"0":{"bias":3.3655166625976562,"weights":{"0":-7.300460338592529,"1":4.5543532371521,"2":-4.726757049560547,"3":8.910028457641602,"4":-6.648667812347412,"5":-0.9930552840232849,"6":-5.5675435066223145,"7":-9.989721298217773,"8":7.49636173248291}}}],"outputLookup":true,"inputLookup":true,"activation":"sigmoid","trainOpts":{"iterations":10,"errorThresh":0.005,"log":false,"logPeriod":10,"learningRate":0.3,"momentum":0.1,"callbackPeriod":10,"beta1":0.9,"beta2":0.999,"epsilon":1e-8}}